<?xml version="1.0"?>
<opencv_storage>
<opencv-ml-svm>
  <format>3</format>
  <svm_type>NU_SVC</svm_type>
  <kernel><type>RBF</type>
    <gamma>3.0517578125000000e-005</gamma></kernel>
  <nu>2.9999999999999999e-001</nu>
  <term_criteria><epsilon>2.2204460492503131e-016</epsilon>
    <iterations>100</iterations></term_criteria>
  <!--<var_all>3</var_all>-->
  <var_count>3</var_count>
  <class_count>2</class_count>
  <class_labels type_id="opencv-matrix">
    <rows>1</rows>
    <cols>2</cols>
    <dt>i</dt>
    <data>
      0 1</data></class_labels>
  <sv_total>172</sv_total>
  <support_vectors>
    <_>
      1.22043395e+000 3.01391792e+000 0.</_>
    <_>
      1.27261305e+000 2.93630695e+000 1.64428794e+000</_>
    <_>
      7.86656976e-001 4.81308997e-001 2.21382403e+000</_>
    <_>
      1.23867297e+000 2.62292194e+000 1.55927002e-001</_>
    <_>
      8.02500010e-001 9.15264010e-001 2.41281390e+000</_>
    <_>
      3.84210491e+000 4.49999988e-001 0.</_>
    <_>
      1.05894899e+000 2.62179899e+000 8.53820026e-001</_>
    <_>
      1.19618404e+000 2.27691793e+000 8.18013012e-001</_>
    <_>
      1.01245701e+000 1.95703900e+000 1.77652597e+000</_>
    <_>
      3.09029698e+000 2.15415597e+000 2.36361098e+000</_>
    <_>
      8.39387000e-001 2.39629197e+000 9.99979019e-001</_>
    <_>
      4.19566989e-001 1.02384698e+000 2.87335300e+000</_>
    <_>
      7.92433977e-001 2.45203590e+000 1.42413294e+000</_>
    <_>
      1.02304399e+000 2.33272505e+000 2.49324799e+000</_>
    <_>
      9.64322984e-001 1.22866595e+000 2.35981607e+000</_>
    <_>
      1.83641505e+000 2.80493593e+000 5.48704028e-001</_>
    <_>
      8.13929975e-001 2.94586396e+000 1.80181098e+000</_>
    <_>
      7.87980974e-001 2.82926011e+000 2.93839908e+000</_>
    <_>
      6.78587973e-001 7.62912989e-001 2.82240007e-002</_>
    <_>
      1.35852695e+000 1.60093296e+000 9.16433990e-001</_>
    <_>
      6.77470028e-001 3.83773398e+000 1.83892298e+000</_>
    <_>
      1.14719403e+000 1.74792695e+000 3.08301091e+000</_>
    <_>
      1.03243804e+000 2.93004894e+000 2.96264195e+000</_>
    <_>
      1.07843101e+000 3.29841805e+000 6.56084001e-001</_>
    <_>
      1.47939599e+000 2.89546394e+000 1.62478995e+000</_>
    <_>
      2.83221507e+000 1.50119996e+000 0.</_>
    <_>
      2.40494299e+000 1.26632297e+000 9.34032977e-001</_>
    <_>
      9.78156984e-001 1.20870900e+000 1.01160800e+000</_>
    <_>
      2.01913691e+000 2.12054205e+000 1.54381204e+000</_>
    <_>
      2.11023593e+000 1.19415796e+000 6.66069984e-002</_>
    <_>
      1.33019602e+000 1.86995196e+000 8.62576008e-001</_>
    <_>
      1.12238204e+000 2.51036191e+000 7.07943976e-001</_>
    <_>
      9.55056012e-001 1.30116904e+000 9.41250980e-001</_>
    <_>
      9.42975998e-001 1.26324701e+000 2.40567803e+000</_>
    <_>
      1.12749195e+000 1.29023397e+000 2.46756196e+000</_>
    <_>
      7.40163982e-001 8.99682999e-001 1.51655400e+000</_>
    <_>
      9.07827973e-001 2.42809010e+000 8.75091016e-001</_>
    <_>
      1.81858897e+000 1.73612499e+000 1.60145497e+000</_>
    <_>
      1.13114297e+000 1.66259301e+000 3.08835506e+000</_>
    <_>
      1.08582306e+000 1.43595803e+000 3.04378510e+000</_>
    <_>
      1.49733400e+000 2.70111799e+000 6.58266008e-001</_>
    <_>
      2.03971004e+000 1.61022902e+000 2.16747594e+000</_>
    <_>
      1.51371300e+000 1.28333497e+000 2.01475310e+000</_>
    <_>
      2.34028697e+000 1.52105296e+000 2.81137705e+000</_>
    <_>
      4.58903998e-001 1.92720306e+000 3.09366107e+000</_>
    <_>
      7.58548021e-001 1.70977700e+000 1.28415895e+000</_>
    <_>
      6.95156991e-001 2.29243803e+000 3.12258410e+000</_>
    <_>
      7.80488014e-001 1.95227003e+000 1.95199895e+000</_>
    <_>
      1.04832602e+000 1.14691496e+000 2.81778002e+000</_>
    <_>
      9.28853989e-001 2.95187402e+000 1.13530505e+000</_>
    <_>
      2.06861401e+000 1.37110996e+000 2.70479703e+000</_>
    <_>
      1.09526300e+000 2.06073904e+000 3.05718493e+000</_>
    <_>
      1.41126299e+000 1.20158505e+000 2.25844193e+000</_>
    <_>
      1.65659297e+000 2.19029498e+000 1.66312599e+000</_>
    <_>
      1.70973897e+000 1.35284400e+000 1.22271097e+000</_>
    <_>
      1.50515795e+000 1.27262604e+000 1.84463799e+000</_>
    <_>
      1.13380504e+000 1.16092205e+000 1.74489403e+000</_>
    <_>
      6.23700976e-001 2.79552794e+000 1.69438398e+000</_>
    <_>
      1.10349905e+000 2.68806505e+000 7.63854027e-001</_>
    <_>
      1.52884603e+000 2.34490299e+000 1.62310195e+000</_>
    <_>
      8.34740996e-001 2.58660603e+000 7.33296990e-001</_>
    <_>
      4.18141991e-001 5.80618978e-001 2.20250106e+000</_>
    <_>
      1.19558597e+000 2.53599191e+000 7.78999984e-001</_>
    <_>
      2.81491995e-001 1.40949094e+000 2.97868490e+000</_>
    <_>
      1.85210896e+000 1.42423296e+000 2.52839804e+000</_>
    <_>
      2.25531006e+000 2.19392800e+000 1.53051102e+000</_>
    <_>
      1.24124002e+000 2.32196307e+000 7.73858011e-001</_>
    <_>
      6.32569015e-001 1.36538804e+000 5.41375995e-001</_>
    <_>
      1.25195897e+000 1.98546004e+000 8.56328011e-001</_>
    <_>
      1.78915000e+000 1.78102803e+000 1.59081900e+000</_>
    <_>
      1.07122004e+000 2.90873599e+000 7.48584986e-001</_>
    <_>
      1.67255402e+000 1.35293305e+000 1.80402195e+000</_>
    <_>
      1.30569398e+000 2.32548499e+000 2.46741995e-001</_>
    <_>
      1.11419594e+000 2.27295494e+000 2.35264111e+000</_>
    <_>
      1.78488195e+000 1.29102397e+000 1.34936595e+000</_>
    <_>
      9.47255015e-001 1.00021398e+000 2.51449704e+000</_>
    <_>
      1.15651500e+000 1.50545204e+000 3.00164509e+000</_>
    <_>
      8.84182990e-001 1.63731098e+000 7.53495991e-001</_>
    <_>
      1.65907705e+000 1.48677695e+000 1.04451501e+000</_>
    <_>
      1.72814095e+000 1.44249797e+000 2.05803299e+000</_>
    <_>
      9.70588028e-001 2.44717598e+000 4.03934985e-001</_>
    <_>
      1.15767097e+000 1.59279203e+000 3.07394195e+000</_>
    <_>
      2.46400404e+000 1.75084901e+000 2.22885704e+000</_>
    <_>
      1.03915596e+000 2.14224291e+000 2.16761899e+000</_>
    <_>
      1.16717303e+000 3.79473001e-001 0.</_>
    <_>
      8.96063983e-001 1.37088501e+000 9.44167018e-001</_>
    <_>
      2.10262001e-001 3.46154004e-001 1.12009799e+000</_>
    <_>
      3.46733987e-001 2.55095005e-001 1.84119201e+000</_>
    <_>
      7.94179022e-001 1.67196596e+000 4.55098987e-001</_>
    <_>
      4.22641993e-001 4.86461997e-001 9.60519984e-002</_>
    <_>
      5.40457010e-001 1.80104899e+000 1.93716598e+000</_>
    <_>
      4.92996991e-001 3.98133010e-001 2.18589995e-002</_>
    <_>
      3.00356001e-001 2.51504987e-001 1.32939005e+000</_>
    <_>
      2.74836987e-001 2.52898991e-001 5.12480974e-001</_>
    <_>
      7.38335013e-001 5.73269010e-001 4.45513994e-001</_>
    <_>
      3.83947015e-001 4.88469005e-001 1.21685997e-001</_>
    <_>
      6.17256999e-001 1.33882001e-001 2.90917993e-001</_>
    <_>
      2.03352004e-001 9.13430005e-002 6.46790981e-001</_>
    <_>
      2.30768993e-001 4.72483993e-001 1.09146297e+000</_>
    <_>
      6.76746011e-001 8.50735009e-001 2.30770206e+000</_>
    <_>
      3.52403998e-001 4.01430011e-001 1.07443595e+000</_>
    <_>
      2.01383993e-001 7.08386004e-001 3.07588995e-001</_>
    <_>
      3.22771996e-001 1.78948000e-001 1.36266100e+000</_>
    <_>
      3.73560011e-001 5.25035024e-001 2.76239999e-002</_>
    <_>
      4.03845996e-001 3.32679003e-001 2.40862995e-001</_>
    <_>
      4.85159010e-001 4.16593999e-001 1.09677601e+000</_>
    <_>
      5.08819997e-001 2.22743005e-001 2.13853002e-001</_>
    <_>
      3.12153995e-001 3.29786003e-001 4.57839996e-001</_>
    <_>
      3.01667988e-001 4.88050014e-001 2.37482995e-001</_>
    <_>
      7.64706016e-001 4.41053003e-001 5.94464004e-001</_>
    <_>
      4.06060994e-001 4.40010011e-001 2.42913508e+000</_>
    <_>
      2.99434006e-001 2.40246996e-001 7.13814020e-001</_>
    <_>
      3.61609012e-001 1.58249006e-001 9.34011996e-001</_>
    <_>
      3.84142995e-001 5.29443979e-001 3.64394993e-001</_>
    <_>
      2.37715006e-001 2.43462995e-001 6.52150989e-001</_>
    <_>
      8.75817001e-001 3.45737010e-001 8.56863022e-001</_>
    <_>
      6.66666985e-001 2.54557997e-001 0.</_>
    <_>
      4.19440001e-001 4.14106011e-001 1.11088300e+000</_>
    <_>
      2.25426003e-001 1.28944993e-001 8.61665010e-001</_>
    <_>
      1.23774600e+000 1.67521998e-001 2.42570996e-001</_>
    <_>
      2.50827014e-001 2.32391000e-001 9.56057012e-001</_>
    <_>
      2.27691993e-001 2.66227007e-001 4.43455994e-001</_>
    <_>
      2.43428007e-001 1.62643999e-001 2.61933899e+000</_>
    <_>
      4.48298007e-001 4.98468012e-001 6.55578971e-001</_>
    <_>
      8.52940977e-001 6.57858014e-001 1.13090599e+000</_>
    <_>
      5.50316989e-001 4.11294013e-001 5.27055979e-001</_>
    <_>
      2.78825015e-001 1.79056004e-001 1.43525004e+000</_>
    <_>
      3.14022005e-001 1.52447999e-001 5.20429015e-001</_>
    <_>
      4.57805991e-001 5.00717998e-001 2.39831901e+000</_>
    <_>
      5.83433986e-001 1.04710495e+000 1.44598305e+000</_>
    <_>
      2.64268994e-001 3.03963989e-001 2.23763704e+000</_>
    <_>
      3.39489013e-001 2.15694994e-001 7.48049021e-001</_>
    <_>
      8.30088973e-001 2.82671005e-001 7.91377008e-001</_>
    <_>
      2.98700988e-001 1.78799003e-001 4.87551987e-001</_>
    <_>
      6.09954000e-001 3.38063985e-001 1.18589997e-001</_>
    <_>
      3.58278006e-001 2.65439987e-001 5.55387974e-001</_>
    <_>
      7.97515988e-001 5.38617015e-001 5.45264006e-001</_>
    <_>
      5.18976986e-001 3.57244015e-001 3.70736003e-001</_>
    <_>
      5.77693999e-001 2.44442999e-001 6.54266000e-001</_>
    <_>
      2.25805998e-001 3.72779995e-001 6.61484003e-001</_>
    <_>
      8.82438004e-001 2.79718995e-001 6.31010011e-002</_>
    <_>
      2.07755998e-001 1.85825005e-001 5.20660996e-001</_>
    <_>
      2.74448007e-001 2.87438989e-001 9.04420018e-002</_>
    <_>
      1.06363595e+000 6.88726008e-001 1.76518798e+000</_>
    <_>
      3.20441991e-001 3.99805993e-001 4.14410010e-002</_>
    <_>
      3.18636000e-001 4.36464995e-001 2.17061400e+000</_>
    <_>
      8.34224999e-001 2.58154005e-001 1.97813201e+000</_>
    <_>
      4.13913012e-001 1.91756994e-001 2.25958395e+000</_>
    <_>
      7.65874982e-001 5.57334006e-001 1.30250007e-001</_>
    <_>
      6.16437972e-001 2.71533012e-001 7.20686018e-001</_>
    <_>
      8.02281022e-001 1.06573001e-001 1.47169006e+000</_>
    <_>
      3.81018996e-001 4.30723011e-001 1.11110103e+000</_>
    <_>
      5.96866012e-001 7.62929991e-002 5.24416029e-001</_>
    <_>
      2.93426991e-001 1.95287004e-001 7.04317987e-001</_>
    <_>
      4.41094011e-001 4.13289994e-001 4.23696995e-001</_>
    <_>
      2.70471007e-001 2.67634004e-001 5.51851988e-001</_>
    <_>
      4.16375995e-001 7.97580034e-002 6.76437974e-001</_>
    <_>
      5.71628988e-001 4.44994003e-001 5.77910006e-001</_>
    <_>
      2.33883190e+000 7.36971974e-001 5.06560028e-001</_>
    <_>
      5.46218991e-001 3.90848994e-001 2.60608006e+000</_>
    <_>
      4.81061012e-001 1.47123098e+000 2.10754991e+000</_>
    <_>
      7.80219972e-001 1.90649104e+000 2.29853004e-001</_>
    <_>
      9.89830017e-001 4.69770014e-001 2.43185806e+000</_>
    <_>
      8.51181984e-001 1.79763699e+000 7.14314997e-001</_>
    <_>
      4.58128005e-001 4.44848001e-001 2.54958797e+000</_>
    <_>
      4.29843992e-001 6.29661977e-001 2.61976695e+000</_>
    <_>
      9.06792998e-001 5.54618001e-001 2.18588305e+000</_>
    <_>
      1.44613802e+000 7.81368971e-001 1.42401803e+000</_>
    <_>
      4.17459995e-001 1.54091001e-001 3.06607699e+000</_>
    <_>
      5.46038985e-001 5.10258973e-001 2.21561909e+000</_>
    <_>
      3.75241995e-001 5.01546979e-001 2.51224399e+000</_>
    <_>
      4.19294000e-001 8.40306997e-001 2.83925009e+000</_></support_vectors>
  <decision_functions>
    <_>
      <sv_count>172</sv_count>
      <rho>-1.2659457815050501e-001</rho>
      <alpha>
        7.6177489403532988e+001 7.6177489403532988e+001
        7.6177489403532988e+001 7.6177489403532988e+001
        7.6177489403532988e+001 7.6177489403532988e+001
        7.6177489403532988e+001 7.6177489403532988e+001
        7.6177489403532988e+001 7.6177489403532988e+001
        7.6177489403532988e+001 7.6177489403532988e+001
        7.6177489403532988e+001 7.6177489403532988e+001
        7.6177489403532988e+001 7.6177489403532988e+001
        7.6177489403532988e+001 7.6177489403532988e+001
        7.6177489403532988e+001 7.6177489403532988e+001
        7.6177489403532988e+001 7.6177489403532988e+001
        7.6177489403532988e+001 7.6177489403532988e+001
        7.6177489403532988e+001 7.6177489403532988e+001
        7.6177489403532988e+001 7.6177489403532988e+001
        7.6177489403532988e+001 7.6177489403532988e+001
        7.6177489403532988e+001 7.6177489403532988e+001
        7.6177489403532988e+001 7.6177489403532988e+001
        7.6177489403532988e+001 7.6177489403532988e+001
        7.6177489403532988e+001 7.6177489403532988e+001
        7.6177489403532988e+001 7.6177489403532988e+001
        7.6177489403532988e+001 7.6177489403532988e+001
        7.6177489403532988e+001 7.6177489403532988e+001
        7.6177489403532988e+001 7.6177489403532988e+001
        7.6177489403532988e+001 7.6177489403532988e+001
        7.6177489403532988e+001 7.6177489403532988e+001
        7.6177489403532988e+001 7.6177489403532988e+001
        7.6177489403532988e+001 7.6177489403532988e+001
        7.6177489403532988e+001 7.6177489403532988e+001
        7.6177489403532988e+001 7.6177489403532988e+001
        7.6177489403532988e+001 7.6177489403532988e+001
        7.6177489403532988e+001 7.6177489403532988e+001
        7.6177489403532988e+001 7.6177489403532988e+001
        7.6177489403532988e+001 3.8088744701766494e+001
        7.6177489403532988e+001 7.6177489403532988e+001
        7.6177489403532988e+001 7.6177489403532988e+001
        7.6177489403532988e+001 7.6177489403532988e+001
        7.6177489403532988e+001 7.6177489403532988e+001
        7.6177489403532988e+001 7.6177489403532988e+001
        7.6177489403532988e+001 7.6177489403532988e+001
        7.6177489403532988e+001 7.6177489403532988e+001
        7.6177489403532988e+001 7.6177489403532988e+001
        7.6177489403532988e+001 7.6177489403532988e+001
        7.6177489403532988e+001 7.6177489403532988e+001
        -7.6177489403532988e+001 -7.6177489403532988e+001
        -7.6177489403532988e+001 -7.6177489403532988e+001
        -7.6177489403532988e+001 -7.6177489403532988e+001
        -7.6177489403532988e+001 -7.6177489403532988e+001
        -7.6177489403532988e+001 -7.6177489403532988e+001
        -7.6177489403532988e+001 -3.8088744701766494e+001
        -7.6177489403532988e+001 -7.6177489403532988e+001
        -7.6177489403532988e+001 -7.6177489403532988e+001
        -7.6177489403532988e+001 -7.6177489403532988e+001
        -7.6177489403532988e+001 -7.6177489403532988e+001
        -7.6177489403532988e+001 -7.6177489403532988e+001
        -7.6177489403532988e+001 -7.6177489403532988e+001
        -7.6177489403532988e+001 -7.6177489403532988e+001
        -7.6177489403532988e+001 -7.6177489403532988e+001
        -7.6177489403532988e+001 -7.6177489403532988e+001
        -7.6177489403532988e+001 -7.6177489403532988e+001
        -7.6177489403532988e+001 -7.6177489403532988e+001
        -7.6177489403532988e+001 -7.6177489403532988e+001
        -7.6177489403532988e+001 -7.6177489403532988e+001
        -7.6177489403532988e+001 -7.6177489403532988e+001
        -7.6177489403532988e+001 -7.6177489403532988e+001
        -7.6177489403532988e+001 -7.6177489403532988e+001
        -7.6177489403532988e+001 -7.6177489403532988e+001
        -7.6177489403532988e+001 -7.6177489403532988e+001
        -7.6177489403532988e+001 -7.6177489403532988e+001
        -7.6177489403532988e+001 -7.6177489403532988e+001
        -7.6177489403532988e+001 -7.6177489403532988e+001
        -7.6177489403532988e+001 -7.6177489403532988e+001
        -7.6177489403532988e+001 -7.6177489403532988e+001
        -7.6177489403532988e+001 -7.6177489403532988e+001
        -7.6177489403532988e+001 -7.6177489403532988e+001
        -7.6177489403532988e+001 -7.6177489403532988e+001
        -7.6177489403532988e+001 -7.6177489403532988e+001
        -7.6177489403532988e+001 -7.6177489403532988e+001
        -7.6177489403532988e+001 -7.6177489403532988e+001
        -7.6177489403532988e+001 -7.6177489403532988e+001
        -7.6177489403532988e+001 -7.6177489403532988e+001
        -7.6177489403532988e+001 -7.6177489403532988e+001
        -7.6177489403532988e+001 -7.6177489403532988e+001
        -7.6177489403532988e+001 -7.6177489403532988e+001
        -7.6177489403532988e+001 -7.6177489403532988e+001
        -7.6177489403532988e+001 -7.6177489403532988e+001
        -7.6177489403532988e+001 -7.6177489403532988e+001</alpha>
      <index>
        0 1 2 3 4 5 6 7 8 9 10 11 12 13 14 15 16 17 18 19 20 21 22 23 24
        25 26 27 28 29 30 31 32 33 34 35 36 37 38 39 40 41 42 43 44 45
        46 47 48 49 50 51 52 53 54 55 56 57 58 59 60 61 62 63 64 65 66
        67 68 69 70 71 72 73 74 75 76 77 78 79 80 81 82 83 84 85 86 87
        88 89 90 91 92 93 94 95 96 97 98 99 100 101 102 103 104 105 106
        107 108 109 110 111 112 113 114 115 116 117 118 119 120 121 122
        123 124 125 126 127 128 129 130 131 132 133 134 135 136 137 138
        139 140 141 142 143 144 145 146 147 148 149 150 151 152 153 154
        155 156 157 158 159 160 161 162 163 164 165 166 167 168 169 170
        171</index></_></decision_functions></opencv-ml-svm>
</opencv_storage>
